<?xml version="1.0"?>
<opencv_storage>
<cascade>
  <stageType>BOOST</stageType>
  <featureType>HAAR</featureType>
  <height>24</height>
  <width>24</width>
  <stageParams>
    <boostType>GAB</boostType>
    <minHitRate>1.</minHitRate>
    <maxFalseAlarm>2.0000000298023224e-01</maxFalseAlarm>
    <weightTrimRate>9.4999999999999996e-01</weightTrimRate>
    <maxDepth>1</maxDepth>
    <maxWeakCount>100</maxWeakCount></stageParams>
  <featureParams>
    <maxCatCount>0</maxCatCount>
    <featSize>1</featSize>
    <mode>BASIC</mode></featureParams>
  <stageNum>12</stageNum>
  <stages>
    <!-- stage 0 -->
    <_>
      <maxWeakCount>24</maxWeakCount>
      <stageThreshold>-1.5491380691528320e+00</stageThreshold>
      <weakClassifiers>
        <_>
          <internalNodes>
            0 -1 191 8.5394857451319695e-03</internalNodes>
          <leafValues>
            -7.6926285028457642e-01 4.3100690841674805e-01</leafValues></_>
        <_>
          <internalNodes>
            0 -1 136 5.2522044628858566e-02</internalNodes>
          <leafValues>
            2.3605005443096161e-01 -9.5085316896438599e-01</leafValues></_>
        <_>
          <internalNodes>
            0 -1 532 -1.0819901712238789e-02</internalNodes>
          <leafValues>
            8.0403953790664673e-01 -2.7169901132583618e-01</leafValues></_>
        <_>
          <internalNodes>
            0 -1 503 -6.6431283950805664e-02</internalNodes>
          <leafValues>
            -1.0559359788894653e+00 2.3191568255424500e-01</leafValues></_>
        <_>
          <internalNodes>
            0 -1 322 8.2556530833244324e-03</internalNodes>
          <leafValues>
            2.2463598847389221e-01 -5.4505187273025513e-01</leafValues></_>
        <_>
          <internalNodes>
            0 -1 375 3.1851441599428654e-03</internalNodes>
          <leafValues>
            -2.2484491765499115e-01 8.8889479637145996e-01</leafValues></_>
        <_>
          <internalNodes>
            0 -1 432 -2.4016494862735271e-03</internalNodes>
          <leafValues>
            8.7790942192077637e-01 -1.7918965220451355e-01</leafValues></_>
        <_>
          <internalNodes>
            0 -1 7 1.0603191331028938e-02</internalNodes>
          <leafValues>
            -1.9626380503177643e-01 7.8162533044815063e-01</leafValues></_>
        <_>
          <internalNodes>
            0 -1 179 4.7314874827861786e-02</internalNodes>
          <leafValues>
            1.1295312643051147e-01 -1.3481799364089966e+00</leafValues></_>
        <_>
          <internalNodes>
            0 -1 524 -6.3703050836920738e-03</internalNodes>
          <leafValues>
            1.0324834585189819e+00 -1.3474451005458832e-01</leafValues></_>
        <_>
          <internalNodes>
            0 -1 89 4.3316921219229698e-03</internalNodes>
          <leafValues>
            -2.6068744063377380e-01 4.6583455801010132e-01</leafValues></_>
        <_>
          <internalNodes>
            0 -1 266 -1.2605106167029589e-04</internalNodes>
          <leafValues>
            5.4297703504562378e-01 -2.3420706391334534e-01</leafValues></_>
        <_>
          <internalNodes>
            0 -1 410 4.7929864376783371e-03</internalNodes>
          <leafValues>
            1.8944828212261200e-01 -6.3974171876907349e-01</leafValues></_>
        <_>
          <internalNodes>
            0 -1 279 -3.6990776658058167e-02</internalNodes>
          <leafValues>
            -5.4826486110687256e-01 2.6553130149841309e-01</leafValues></_>
        <_>
          <internalNodes>
            0 -1 380 -2.0255269191693515e-04</internalNodes>
          <leafValues>
            5.1884466409683228e-01 -2.1912057697772980e-01</leafValues></_>
        <_>
          <internalNodes>
            0 -1 509 3.3898307010531425e-03</internalNodes>
          <leafValues>
            -1.5178641676902771e-01 9.0775090456008911e-01</leafValues></_>
        <_>
          <internalNodes>
            0 -1 145 2.3683549370616674e-03</internalNodes>
          <leafValues>
            -1.4876310527324677e-01 8.5334533452987671e-01</leafValues></_>
        <_>
          <internalNodes>
            0 -1 230 2.2948109544813633e-03</internalNodes>
          <leafValues>
            -1.6940268874168396e-01 8.4559893608093262e-01</leafValues></_>
        <_>
          <internalNodes>
            0 -1 314 -2.7210402488708496e-01</internalNodes>
          <leafValues>
            -3.7837955355644226e-01 4.1325443983078003e-01</leafValues></_>
        <_>
          <internalNodes>
            0 -1 272 4.8116053221747279e-04</internalNodes>
          <leafValues>
            2.7016386389732361e-01 -4.7603467106819153e-01</leafValues></_>
        <_>
          <internalNodes>
            0 -1 463 8.1510201562196016e-04</internalNodes>
          <leafValues>
            -2.3047229647636414e-01 7.0487040281295776e-01</leafValues></_>
        <_>
          <internalNodes>
            0 -1 550 -1.0268192738294601e-02</internalNodes>
          <leafValues>
            7.0686632394790649e-01 -1.9010056555271149e-01</leafValues></_>
        <_>
          <internalNodes>
            0 -1 166 1.6901122871786356e-03</internalNodes>
          <leafValues>
            -2.3851348459720612e-01 5.2218776941299438e-01</leafValues></_>
        <_>
          <internalNodes>
            0 -1 324 1.2578450143337250e-02</internalNodes>
          <leafValues>
            1.5434399247169495e-01 -7.4328833818435669e-01</leafValues></_></weakClassifiers></_>
    <!-- stage 1 -->
    <_>
      <maxWeakCount>32</maxWeakCount>
      <stageThreshold>-1.1229330301284790e+00</stageThreshold>
      <weakClassifiers>
        <_>
          <internalNodes>
            0 -1 5 1.0919491760432720e-02</internalNodes>
          <leafValues>
            -5.3527718782424927e-01 4.3164908885955811e-01</leafValues></_>
        <_>
          <internalNodes>
            0 -1 540 -1.5296194702386856e-02</internalNodes>
          <leafValues>
            -2.4408699572086334e-01 4.3078976869583130e-01</leafValues></_>
        <_>
          <internalNodes>
            0 -1 15 4.3096365407109261e-03</internalNodes>
          <leafValues>
            -3.6982282996177673e-01 3.5118135809898376e-01</leafValues></_>
        <_>
          <internalNodes>
            0 -1 35 6.5902233123779297e-02</internalNodes>
          <leafValues>
            1.8082752823829651e-01 -7.3390448093414307e-01</leafValues></_>
        <_>
          <internalNodes>
            0 -1 504 -6.2765507027506828e-04</internalNodes>
          <leafValues>
            8.2829111814498901e-01 -1.1397784203290939e-01</leafValues></_>
        <_>
          <internalNodes>
            0 -1 42 4.4552274048328400e-03</internalNodes>
          <leafValues>
            -1.3766625523567200e-01 8.3734667301177979e-01</leafValues></_>
        <_>
          <internalNodes>
            0 -1 543 -1.4974502846598625e-02</internalNodes>
          <leafValues>
            6.2172466516494751e-01 -1.5275569260120392e-01</leafValues></_>
        <_>
          <internalNodes>
            0 -1 481 -1.3486167881637812e-03</internalNodes>
          <leafValues>
            7.7927494049072266e-01 -1.4004112780094147e-01</leafValues></_>
        <_>
          <internalNodes>
            0 -1 125 3.2061995007097721e-03</internalNodes>
          <leafValues>
            -1.8688744306564331e-01 4.2220351099967957e-01</leafValues></_>
        <_>
          <internalNodes>
            0 -1 558 3.9927400648593903e-03</internalNodes>
          <leafValues>
            -1.0426069796085358e-01 8.5389024019241333e-01</leafValues></_>
        <_>
          <internalNodes>
            0 -1 77 -1.0061394423246384e-02</internalNodes>
          <leafValues>
            -2.1700625121593475e-01 3.4718963503837585e-01</leafValues></_>
        <_>
          <internalNodes>
            0 -1 177 7.0783570408821106e-02</internalNodes>
          <leafValues>
            9.0991124510765076e-02 -1.7159785032272339e+00</leafValues></_>
        <_>
          <internalNodes>
            0 -1 45 7.8223794698715210e-03</internalNodes>
          <leafValues>
            2.0300240814685822e-01 -4.0219488739967346e-01</leafValues></_>
        <_>
          <internalNodes>
            0 -1 340 -8.9430322987027466e-05</internalNodes>
          <leafValues>
            3.5153588652610779e-01 -2.6316839456558228e-01</leafValues></_>
        <_>
          <internalNodes>
            0 -1 496 2.0527839660644531e-03</internalNodes>
          <leafValues>
            -9.2778280377388000e-02 8.6019665002822876e-01</leafValues></_>
        <_>
          <internalNodes>
            0 -1 264 -1.0425962973386049e-03</internalNodes>
          <leafValues>
            6.6342973709106445e-01 -1.2576179206371307e-01</leafValues></_>
        <_>
          <internalNodes>
            0 -1 130 2.8642681427299976e-03</internalNodes>
          <leafValues>
            -3.0013525485992432e-01 2.4517998099327087e-01</leafValues></_>
        <_>
          <internalNodes>
            0 -1 201 1.3858726248145103e-02</internalNodes>
          <leafValues>
            2.0449851453304291e-01 -3.7798625230789185e-01</leafValues></_>
        <_>
          <internalNodes>
            0 -1 534 -1.3958956114947796e-03</internalNodes>
          <leafValues>
            7.8021657466888428e-01 -1.0914114117622375e-01</leafValues></_>
        <_>
          <internalNodes>
            0 -1 417 -7.8249879181385040e-02</internalNodes>
          <leafValues>
            -6.4637947082519531e-01 1.3148733973503113e-01</leafValues></_>
        <_>
          <internalNodes>
            0 -1 477 1.1936698138015345e-04</internalNodes>
          <leafValues>
            1.9856277108192444e-01 -3.8472211360931396e-01</leafValues></_>
        <_>
          <internalNodes>
            0 -1 240 -3.2093603163957596e-02</internalNodes>
          <leafValues>
            -1.0088076591491699e+00 8.0836929380893707e-02</leafValues></_>
        <_>
          <internalNodes>
            0 -1 202 1.0525524616241455e-02</internalNodes>
          <leafValues>
            1.8102835118770599e-01 -3.8570845127105713e-01</leafValues></_>
        <_>
          <internalNodes>
            0 -1 4 -7.3680236935615540e-02</internalNodes>
          <leafValues>
            -5.3233772516250610e-01 1.4688457548618317e-01</leafValues></_>
        <_>
          <internalNodes>
            0 -1 398 -1.1251576943323016e-03</internalNodes>
          <leafValues>
            8.3414226770401001e-01 -1.1504757404327393e-01</leafValues></_>
        <_>
          <internalNodes>
            0 -1 564 -1.0622504167258739e-02</internalNodes>
          <leafValues>
            8.8871580362319946e-01 -1.1389753222465515e-01</leafValues></_>
        <_>
          <internalNodes>
            0 -1 434 -9.2497110366821289e-02</internalNodes>
          <leafValues>
            -8.2106041908264160e-01 1.0902173072099686e-01</leafValues></_>
        <_>
          <internalNodes>
            0 -1 444 -1.0622757254168391e-03</internalNodes>
          <leafValues>
            -2.9299762845039368e-01 2.2662882506847382e-01</leafValues></_>
        <_>
          <internalNodes>
            0 -1 411 1.1310517787933350e-02</internalNodes>
          <leafValues>
            1.2627963721752167e-01 -7.2176462411880493e-01</leafValues></_>
        <_>
          <internalNodes>
            0 -1 33 2.2423584014177322e-03</internalNodes>
          <leafValues>
            1.1930216103792191e-01 -6.7048525810241699e-01</leafValues></_>
        <_>
          <internalNodes>
            0 -1 143 8.2784578204154968e-02</internalNodes>
          <leafValues>
            9.6147589385509491e-02 -1.0426206588745117e+00</leafValues></_>
        <_>
          <internalNodes>
            0 -1 315 -1.8639828264713287e-01</internalNodes>
          <leafValues>
            1.2156859040260315e-01 -6.8711537122726440e-01</leafValues></_></weakClassifiers></_>
    <!-- stage 2 -->
    <_>
      <maxWeakCount>45</maxWeakCount>
      <stageThreshold>-1.1575577259063721e+00</stageThreshold>
      <weakClassifiers>
        <_>
          <internalNodes>
            0 -1 8 1.3647078536450863e-02</internalNodes>
          <leafValues>
            -5.4277008771896362e-01 1.8815426528453827e-01</leafValues></_>
        <_>
          <internalNodes>
            0 -1 255 -6.7062694579362869e-03</internalNodes>
          <leafValues>
            4.5203033089637756e-01 -1.8807260692119598e-01</leafValues></_>
        <_>
          <internalNodes>
            0 -1 40 2.2585934857488610e-05</internalNodes>
          <leafValues>
            1.7778064310550690e-01 -4.6452516317367554e-01</leafValues></_>
        <_>
          <internalNodes>
            0 -1 559 7.2052963078022003e-03</internalNodes>
          <leafValues>
            -1.2251000851392746e-01 5.9701442718505859e-01</leafValues></_>
        <_>
          <internalNodes>
            0 -1 366 -4.9404706805944443e-03</internalNodes>
          <leafValues>
            5.0977164506912231e-01 -1.1874112486839294e-01</leafValues></_>
        <_>
          <internalNodes>
            0 -1 548 -1.9364506006240845e-02</internalNodes>
          <leafValues>
            -4.0449035167694092e-01 1.8509481847286224e-01</leafValues></_>
        <_>
          <internalNodes>
            0 -1 292 -1.2541525997221470e-02</internalNodes>
          <leafValues>
            4.8030683398246765e-01 -1.6118381917476654e-01</leafValues></_>
        <_>
          <internalNodes>
            0 -1 526 -3.1271991319954395e-03</internalNodes>
          <leafValues>
            5.8150523900985718e-01 -6.7186310887336731e-02</leafValues></_>
        <_>
          <internalNodes>
            0 -1 176 1.2669069692492485e-03</internalNodes>
          <leafValues>
            -1.1317124217748642e-01 5.6063151359558105e-01</leafValues></_>
        <_>
          <internalNodes>
            0 -1 563 -4.1119046509265900e-03</internalNodes>
          <leafValues>
            7.1120905876159668e-01 -8.2664251327514648e-02</leafValues></_>
        <_>
          <internalNodes>
            0 -1 530 -3.3574858680367470e-03</internalNodes>
          <leafValues>
            6.2084203958511353e-01 -1.2103907763957977e-01</leafValues></_>
        <_>
          <internalNodes>
            0 -1 479 -1.4613126218318939e-01</internalNodes>
          <leafValues>
            -1.0935196280479431e-01 5.9639018774032593e-01</leafValues></_>
        <_>
          <internalNodes>
            0 -1 433 -1.6540312208235264e-03</internalNodes>
          <leafValues>
            4.4799867272377014e-01 -1.5908037126064301e-01</leafValues></_>
        <_>
          <internalNodes>
            0 -1 502 -6.6219847649335861e-03</internalNodes>
          <leafValues>
            -9.0062803030014038e-01 8.9754983782768250e-02</leafValues></_>
        <_>
          <internalNodes>
            0 -1 111 1.3283679727464914e-03</internalNodes>
          <leafValues>
            -1.2604434788227081e-01 4.9753612279891968e-01</leafValues></_>
        <_>
          <internalNodes>
            0 -1 351 1.3727299869060516e-02</internalNodes>
          <leafValues>
            9.0196050703525543e-02 -7.5368291139602661e-01</leafValues></_>
        <_>
          <internalNodes>
            0 -1 21 8.7651461362838745e-03</internalNodes>
          <leafValues>
            -7.5701124966144562e-02 8.7223410606384277e-01</leafValues></_>
        <_>
          <internalNodes>
            0 -1 161 2.8557367622852325e-03</internalNodes>
          <leafValues>
            1.6365092992782593e-01 -3.3984747529029846e-01</leafValues></_>
        <_>
          <internalNodes>
            0 -1 456 -1.5615014359354973e-02</internalNodes>
          <leafValues>
            -3.7128657102584839e-01 1.5823490917682648e-01</leafValues></_>
        <_>
          <internalNodes>
            0 -1 517 -1.0071226395666599e-02</internalNodes>
          <leafValues>
            4.9499902129173279e-01 -1.4500302076339722e-01</leafValues></_>
        <_>
          <internalNodes>
            0 -1 194 3.2661636359989643e-03</internalNodes>
          <leafValues>
            -2.5067451596260071e-01 2.7386042475700378e-01</leafValues></_>
        <_>
          <internalNodes>
            0 -1 268 4.1875444352626801e-02</internalNodes>
          <leafValues>
            5.7250428944826126e-02 -1.5317552089691162e+00</leafValues></_>
        <_>
          <internalNodes>
            0 -1 257 -1.9598463177680969e-01</internalNodes>
          <leafValues>
            -1.1459959745407104e+00 6.3336461782455444e-02</leafValues></_>
        <_>
          <internalNodes>
            0 -1 94 5.2566282451152802e-02</internalNodes>
          <leafValues>
            7.5285591185092926e-02 -1.0048662424087524e+00</leafValues></_>
        <_>
          <internalNodes>
            0 -1 169 -1.0095385834574699e-02</internalNodes>
          <leafValues>
            -4.5173844695091248e-01 1.2991435825824738e-01</leafValues></_>
        <_>
          <internalNodes>
            0 -1 305 2.3700555320829153e-03</internalNodes>
          <leafValues>
            -1.2125210464000702e-01 5.7088452577590942e-01</leafValues></_>
        <_>
          <internalNodes>
            0 -1 311 -2.0141211152076721e-01</internalNodes>
          <leafValues>
            -9.9000680446624756e-01 6.9711446762084961e-02</leafValues></_>
        <_>
          <internalNodes>
            0 -1 424 2.1384125575423241e-03</internalNodes>
          <leafValues>
            1.3611899316310883e-01 -4.6139758825302124e-01</leafValues></_>
        <_>
          <internalNodes>
            0 -1 226 -4.7186054289340973e-03</internalNodes>
          <leafValues>
            5.1239150762557983e-01 -1.3061438500881195e-01</leafValues></_>
        <_>
          <internalNodes>
            0 -1 478 6.3773081637918949e-04</internalNodes>
          <leafValues>
            -1.4193205535411835e-01 4.1183099150657654e-01</leafValues></_>
        <_>
          <internalNodes>
            0 -1 353 -4.1287085041403770e-03</internalNodes>
          <leafValues>
            5.7470756769180298e-01 -1.0411522537469864e-01</leafValues></_>
        <_>
          <internalNodes>
            0 -1 69 8.7653473019599915e-03</internalNodes>
          <leafValues>
            9.6470765769481659e-02 -5.7609325647354126e-01</leafValues></_>
        <_>
          <internalNodes>
            0 -1 510 3.5459669306874275e-03</internalNodes>
          <leafValues>
            -1.1653153598308563e-01 5.1805388927459717e-01</leafValues></_>
        <_>
          <internalNodes>
            0 -1 523 -1.7055113567039371e-03</internalNodes>
          <leafValues>
            2.0916864275932312e-01 -2.7478706836700439e-01</leafValues></_>
        <_>
          <internalNodes>
            0 -1 92 2.1351134637370706e-04</internalNodes>
          <leafValues>
            1.8276910483837128e-01 -3.2373210787773132e-01</leafValues></_>
        <_>
          <internalNodes>
            0 -1 213 -8.4840141236782074e-02</internalNodes>
          <leafValues>
            -6.9794958829879761e-01 9.3261472880840302e-02</leafValues></_>
        <_>
          <internalNodes>
            0 -1 409 -1.4269356615841389e-02</internalNodes>
          <leafValues>
            -4.3647280335426331e-01 1.5426132082939148e-01</leafValues></_>
        <_>
          <internalNodes>
            0 -1 338 1.7424732446670532e-02</internalNodes>
          <leafValues>
            -8.2651041448116302e-02 8.1323289871215820e-01</leafValues></_>
        <_>
          <internalNodes>
            0 -1 49 5.1229549571871758e-03</internalNodes>
          <leafValues>
            -9.9045142531394958e-02 5.7455933094024658e-01</leafValues></_>
        <_>
          <internalNodes>
            0 -1 120 1.8781624385155737e-04</internalNodes>
          <leafValues>
            1.3422662019729614e-01 -3.9277118444442749e-01</leafValues></_>
        <_>
          <internalNodes>
            0 -1 243 -1.4440705068409443e-02</internalNodes>
          <leafValues>
            7.0983655750751495e-02 -9.3622022867202759e-01</leafValues></_>
        <_>
          <internalNodes>
            0 -1 472 -8.6230542510747910e-03</internalNodes>
          <leafValues>
            -1.2862831354141235e-01 5.1938736438751221e-01</leafValues></_>
        <_>
          <internalNodes>
            0 -1 512 3.6721972282975912e-03</internalNodes>
          <leafValues>
            -1.0135780274868011e-01 7.5680178403854370e-01</leafValues></_>
        <_>
          <internalNodes>
            0 -1 251 -4.8987217247486115e-02</internalNodes>
          <leafValues>
            -1.7878100872039795e+00 6.0553077608346939e-02</leafValues></_>
        <_>
          <internalNodes>
            0 -1 293 1.6438567545264959e-03</internalNodes>
          <leafValues>
            -1.6695126891136169e-01 3.3769527077674866e-01</leafValues></_></weakClassifiers></_>
    <!-- stage 3 -->
    <_>
      <maxWeakCount>68</maxWeakCount>
      <stageThreshold>-1.0611355304718018e+00</stageThreshold>
      <weakClassifiers>
        <_>
          <internalNodes>
            0 -1 160 9.1722328215837479e-03</internalNodes>
          <leafValues>
            -5.6797498464584351e-01 -2.4835804477334023e-02</leafValues></_>
        <_>
          <internalNodes>
            0 -1 547 1.3285643421113491e-02</internalNodes>
          <leafValues>
            -1.0098230838775635e-01 6.1265480518341064e-01</leafValues></_>
        <_>
          <internalNodes>
            0 -1 2 6.3050743192434311e-03</internalNodes>
          <leafValues>
            -1.2488262355327606e-01 4.2021155357360840e-01</leafValues></_>
        <_>
          <internalNodes>
            0 -1 498 -2.4194002151489258e-02</internalNodes>
          <leafValues>
            -2.3378394544124603e-01 2.1079975366592407e-01</leafValues></_>
        <_>
          <internalNodes>
            0 -1 555 -6.0015176422894001e-03</internalNodes>
          <leafValues>
            6.4206749200820923e-01 -7.4839174747467041e-02</leafValues></_>
        <_>
          <internalNodes>
            0 -1 20 3.8677309639751911e-03</internalNodes>
          <leafValues>
            -1.1224394291639328e-01 3.9312869310379028e-01</leafValues></_>
        <_>
          <internalNodes>
            0 -1 57 7.1921676397323608e-02</internalNodes>
          <leafValues>
            1.1659700423479080e-01 -9.8716968297958374e-01</leafValues></_>
        <_>
          <internalNodes>
            0 -1 325 -2.1482021547853947e-03</internalNodes>
          <leafValues>
            4.7306129336357117e-01 -1.4819619059562683e-01</leafValues></_>
        <_>
          <internalNodes>
            0 -1 198 -4.4479817152023315e-03</internalNodes>
          <leafValues>
            8.4949296712875366e-01 -5.7772256433963776e-02</leafValues></_>
        <_>
          <internalNodes>
            0 -1 196 8.9592570438981056e-03</internalNodes>
          <leafValues>
            -3.1063234806060791e-01 1.5539845824241638e-01</leafValues></_>
        <_>
          <internalNodes>
            0 -1 274 1.8764901324175298e-04</internalNodes>
          <leafValues>
            1.6964037716388702e-01 -3.3046093583106995e-01</leafValues></_>
        <_>
          <internalNodes>
            0 -1 138 -1.1549408733844757e-01</internalNodes>
          <leafValues>
            -7.0975261926651001e-01 8.9014396071434021e-02</leafValues></_>
        <_>
          <internalNodes>
            0 -1 519 -2.8456283733248711e-02</internalNodes>
          <leafValues>
            6.3595950603485107e-01 -8.8748984038829803e-02</leafValues></_>
        <_>
          <internalNodes>
            0 -1 412 -2.4928955826908350e-04</internalNodes>
          <leafValues>
            3.5953158140182495e-01 -1.0932877659797668e-01</leafValues></_>
        <_>
          <internalNodes>
            0 -1 329 1.6993123572319746e-03</internalNodes>
          <leafValues>
            1.2140106409788132e-01 -3.3707100152969360e-01</leafValues></_>
        <_>
          <internalNodes>
            0 -1 414 -4.0746165905147791e-04</internalNodes>
          <leafValues>
            -1.8065892159938812e-01 2.3260951042175293e-01</leafValues></_>
        <_>
          <internalNodes>
            0 -1 31 2.6238679885864258e-02</internalNodes>
          <leafValues>
            -8.2217462360858917e-02 4.9578317999839783e-01</leafValues></_>
        <_>
          <internalNodes>
            0 -1 74 -6.0841530561447144e-02</internalNodes>
          <leafValues>
            -1.0663072764873505e-01 4.1361680626869202e-01</leafValues></_>
        <_>
          <internalNodes>
            0 -1 333 -2.7080658823251724e-02</internalNodes>
          <leafValues>
            6.5231427550315857e-02 -7.9559880495071411e-01</leafValues></_>
        <_>
          <internalNodes>
            0 -1 163 1.5451535582542419e-03</internalNodes>
          <leafValues>
            -1.1016748845577240e-01 4.2914283275604248e-01</leafValues></_>
        <_>
          <internalNodes>
            0 -1 205 7.5873448513448238e-03</internalNodes>
          <leafValues>
            8.7670587003231049e-02 -5.1474791765213013e-01</leafValues></_>
        <_>
          <internalNodes>
            0 -1 459 1.2821773998439312e-03</internalNodes>
          <leafValues>
            -9.1071903705596924e-02 5.2918440103530884e-01</leafValues></_>
        <_>
          <internalNodes>
            0 -1 327 4.9725644290447235e-02</internalNodes>
          <leafValues>
            4.2218599468469620e-02 -1.1132911443710327e+00</leafValues></_>
        <_>
          <internalNodes>
            0 -1 404 1.1425144970417023e-02</internalNodes>
          <leafValues>
            -8.7501592934131622e-02 4.9279198050498962e-01</leafValues></_>
        <_>
          <internalNodes>
            0 -1 199 -9.7748935222625732e-03</internalNodes>
          <leafValues>
            -5.9707254171371460e-01 8.8076479732990265e-02</leafValues></_>
        <_>
          <internalNodes>
            0 -1 507 -4.9609066918492317e-03</internalNodes>
          <leafValues>
            1.3345618247985840e+00 -4.5988354831933975e-02</leafValues></_>
        <_>
          <internalNodes>
            0 -1 420 3.5417480394244194e-03</internalNodes>
          <leafValues>
            -1.0204233229160309e-01 4.3452391028404236e-01</leafValues></_>
        <_>
          <internalNodes>
            0 -1 363 6.9833109155297279e-03</internalNodes>
          <leafValues>
            4.7616735100746155e-02 -1.0676282644271851e+00</leafValues></_>
        <_>
          <internalNodes>
            0 -1 282 -1.2951159442309290e-04</internalNodes>
          <leafValues>
            3.0244579911231995e-01 -1.6020715236663818e-01</leafValues></_>
        <_>
          <internalNodes>
            0 -1 467 -4.1206786409020424e-03</internalNodes>
          <leafValues>
            -3.4935376048088074e-01 1.4708848297595978e-01</leafValues></_>
        <_>
          <internalNodes>
            0 -1 480 3.7620204966515303e-04</internalNodes>
          <leafValues>
            1.8247738480567932e-01 -4.0070211887359619e-01</leafValues></_>
        <_>
          <internalNodes>
            0 -1 553 3.1996080651879311e-03</internalNodes>
          <leafValues>
            -1.0297669470310211e-01 4.7481265664100647e-01</leafValues></_>
        <_>
          <internalNodes>
            0 -1 458 -1.2236128095537424e-03</internalNodes>
          <leafValues>
            -2.8522020578384399e-01 1.5828979015350342e-01</leafValues></_>
        <_>
          <internalNodes>
            0 -1 514 -1.3827924616634846e-02</internalNodes>
          <leafValues>
            4.2181530594825745e-01 -1.1998435109853745e-01</leafValues></_>
        <_>
          <internalNodes>
            0 -1 159 5.0138833466917276e-04</internalNodes>
          <leafValues>
            -2.5003060698509216e-01 1.7847172915935516e-01</leafValues></_>
        <_>
          <internalNodes>
            0 -1 392 -9.1706752777099609e-02</internalNodes>
          <leafValues>
            -2.0129030942916870e-01 2.5658375024795532e-01</leafValues></_>
        <_>
          <internalNodes>
            0 -1 445 -1.1051855981349945e-03</internalNodes>
          <leafValues>
            4.7725141048431396e-01 -9.6907466650009155e-02</leafValues></_>
        <_>
          <internalNodes>
            0 -1 395 -3.5191513597965240e-02</internalNodes>
          <leafValues>
            -4.1673332452774048e-01 1.1158405989408493e-01</leafValues></_>
        <_>
          <internalNodes>
            0 -1 468 -1.9497798057273030e-03</internalNodes>
          <leafValues>
            2.3396071791648865e-01 -2.6438245177268982e-01</leafValues></_>
        <_>
          <internalNodes>
            0 -1 381 -5.9106731787323952e-03</internalNodes>
          <leafValues>
            -2.8515166044235229e-01 1.5844473242759705e-01</leafValues></_>
        <_>
          <internalNodes>
            0 -1 270 -6.5251380205154419e-02</internalNodes>
          <leafValues>
            2.4247786402702332e-01 -2.2345314919948578e-01</leafValues></_>
        <_>
          <internalNodes>
            0 -1 99 -1.5766613185405731e-02</internalNodes>
          <leafValues>
            1.0945092439651489e+00 -6.1462219804525375e-02</leafValues></_>
        <_>
          <internalNodes>
            0 -1 385 -1.0403293708804995e-04</internalNodes>
          <leafValues>
            -2.3960110545158386e-01 1.9972436130046844e-01</leafValues></_>
        <_>
          <internalNodes>
            0 -1 157 6.7382846027612686e-03</internalNodes>
          <leafValues>
            5.6884095072746277e-02 -9.2845451831817627e-01</leafValues></_>
        <_>
          <internalNodes>
            0 -1 513 -5.2453100215643644e-04</internalNodes>
          <leafValues>
            4.6463704109191895e-01 -1.1323203146457672e-01</leafValues></_>
        <_>
          <internalNodes>
            0 -1 303 -2.4662995710968971e-03</internalNodes>
          <leafValues>
            -2.7579593658447266e-01 1.6811287403106689e-01</leafValues></_>
        <_>
          <internalNodes>
            0 -1 197 -3.4379949793219566e-03</internalNodes>
          <leafValues>
            3.1529483199119568e-01 -1.3222996890544891e-01</leafValues></_>
        <_>
          <internalNodes>
            0 -1 400 -5.4290646221488714e-04</internalNodes>
          <leafValues>
            2.6793026924133301e-01 -1.7492586374282837e-01</leafValues></_>
        <_>
          <internalNodes>
            0 -1 341 3.5091468598693609e-03</internalNodes>
          <leafValues>
            9.1705173254013062e-02 -5.6042641401290894e-01</leafValues></_>
        <_>
          <internalNodes>
            0 -1 218 4.5434748753905296e-03</internalNodes>
          <leafValues>
            -8.1300131976604462e-02 6.4364403486251831e-01</leafValues></_>
        <_>
          <internalNodes>
            0 -1 231 -1.0059928148984909e-01</internalNodes>
          <leafValues>
            -1.3317730426788330e+00 4.9470115453004837e-02</leafValues></_>
        <_>
          <internalNodes>
            0 -1 307 1.1196146951988339e-03</internalNodes>
          <leafValues>
            -1.0365050286054611e-01 4.6574056148529053e-01</leafValues></_>
        <_>
          <internalNodes>
            0 -1 331 -5.7583994930610061e-04</internalNodes>
          <leafValues>
            4.5334887504577637e-01 -1.1040680855512619e-01</leafValues></_>
        <_>
          <internalNodes>
            0 -1 82 1.8485423643141985e-03</internalNodes>
          <leafValues>
            -2.6232793927192688e-01 1.8277192115783691e-01</leafValues></_>
        <_>
          <internalNodes>
            0 -1 499 8.4597086533904076e-03</internalNodes>
          <leafValues>
            -1.0830525308847427e-01 5.7619947195053101e-01</leafValues></_>
        <_>
          <internalNodes>
            0 -1 83 7.0330263115465641e-03</internalNodes>
          <leafValues>
            7.6052263379096985e-02 -7.5386452674865723e-01</leafValues></_>
        <_>
          <internalNodes>
            0 -1 220 3.3515680115669966e-04</internalNodes>
          <leafValues>
            1.9322353601455688e-01 -2.6831549406051636e-01</leafValues></_>
        <_>
          <internalNodes>
            0 -1 562 -5.3661586716771126e-03</internalNodes>
          <leafValues>
            3.7261101603507996e-01 -1.3157869875431061e-01</leafValues></_>
        <_>
          <internalNodes>
            0 -1 223 -4.3027601204812527e-03</internalNodes>
          <leafValues>
            -4.5021939277648926e-01 9.7666800022125244e-02</leafValues></_>
        <_>
          <internalNodes>
            0 -1 153 -9.5593091100454330e-04</internalNodes>
          <leafValues>
            7.6041620969772339e-01 -6.7665405571460724e-02</leafValues></_>
        <_>
          <internalNodes>
            0 -1 394 2.3615114390850067e-02</internalNodes>
          <leafValues>
            9.3883372843265533e-02 -4.6421423554420471e-01</leafValues></_>
        <_>
          <internalNodes>
            0 -1 453 3.2183758914470673e-02</internalNodes>
          <leafValues>
            -6.6339261829853058e-02 9.0247768163681030e-01</leafValues></_>
        <_>
          <internalNodes>
            0 -1 180 -5.0480419304221869e-04</internalNodes>
          <leafValues>
            3.3651521801948547e-01 -1.3790379464626312e-01</leafValues></_>
        <_>
          <internalNodes>
            0 -1 506 -2.2761174477636814e-03</internalNodes>
          <leafValues>
            -3.0169200897216797e-01 1.5439128875732422e-01</leafValues></_>
        <_>
          <internalNodes>
            0 -1 393 -9.9453277885913849e-02</internalNodes>
          <leafValues>
            2.5610563158988953e-01 -1.9426183402538300e-01</leafValues></_>
        <_>
          <internalNodes>
            0 -1 462 1.9906459783669561e-04</internalNodes>
          <leafValues>
            -2.0720584690570831e-01 2.4493364989757538e-01</leafValues></_>
        <_>
          <internalNodes>
            0 -1 267 2.2673096100334078e-04</internalNodes>
          <leafValues>
            1.7361728847026825e-01 -2.7515688538551331e-01</leafValues></_>
        <_>
          <internalNodes>
            0 -1 294 3.6779115907847881e-03</internalNodes>
          <leafValues>
            -1.7240799963474274e-01 3.3809229731559753e-01</leafValues></_></weakClassifiers></_>
    <!-- stage 4 -->
    <_>
      <maxWeakCount>50</maxWeakCount>
      <stageThreshold>-1.0503065586090088e+00</stageThreshold>
      <weakClassifiers>
        <_>
          <internalNodes>
            0 -1 3 4.8722182400524616e-03</internalNodes>
          <leafValues>
            -5.2662485837936401e-01 1.1759594827890396e-01</leafValues></_>
        <_>
          <internalNodes>
            0 -1 17 7.4255965650081635e-02</internalNodes>
          <leafValues>
            -2.1966375410556793e-01 3.5948306322097778e-01</leafValues></_>
        <_>
          <internalNodes>
            0 -1 52 1.0072441771626472e-02</internalNodes>
          <leafValues>
            9.9174961447715759e-02 -5.7897979021072388e-01</leafValues></_>
        <_>
          <internalNodes>
            0 -1 312 1.1063287965953350e-02</internalNodes>
          <leafValues>
            -7.0595256984233856e-02 4.9662515521049500e-01</leafValues></_>
        <_>
          <internalNodes>
            0 -1 16 -5.3857725113630295e-02</internalNodes>
          <leafValues>
            -6.6275489330291748e-01 5.8696672320365906e-02</leafValues></_>
        <_>
          <internalNodes>
            0 -1 365 -3.8175564259290695e-03</internalNodes>
          <leafValues>
            6.9549214839935303e-01 -7.8935675323009491e-02</leafValues></_>
        <_>
          <internalNodes>
            0 -1 271 1.2347881682217121e-02</internalNodes>
          <leafValues>
            9.4983667135238647e-02 -5.3167152404785156e-01</leafValues></_>
        <_>
          <internalNodes>
            0 -1 242 -1.0564791038632393e-02</internalNodes>
          <leafValues>
            -7.0380145311355591e-01 9.7140923142433167e-02</leafValues></_>
        <_>
          <internalNodes>
            0 -1 24 2.8043713420629501e-02</internalNodes>
          <leafValues>
            -2.7312487363815308e-01 2.0171995460987091e-01</leafValues></_>
        <_>
          <internalNodes>
            0 -1 134 -4.9673870671540499e-04</internalNodes>
          <leafValues>
            2.9790011048316956e-01 -1.6533826291561127e-01</leafValues></_>
        <_>
          <internalNodes>
            0 -1 486 -3.9602838456630707e-02</internalNodes>
          <leafValues>
            -5.7564578056335449e+00 3.4180473536252975e-02</leafValues></_>
        <_>
          <internalNodes>
            0 -1 36 3.0496411025524139e-02</internalNodes>
          <leafValues>
            -2.8883019462227821e-02 2.4864053726196289e+00</leafValues></_>
        <_>
          <internalNodes>
            0 -1 457 -4.2112819850444794e-02</internalNodes>
          <leafValues>
            -1.2571969032287598e+00 4.6197973191738129e-02</leafValues></_>
        <_>
          <internalNodes>
            0 -1 383 4.1914698667824268e-03</internalNodes>
          <leafValues>
            1.3480986654758453e-01 -3.8475057482719421e-01</leafValues></_>
        <_>
          <internalNodes>
            0 -1 129 3.5039857029914856e-03</internalNodes>
          <leafValues>
            -9.3587361276149750e-02 4.9052315950393677e-01</leafValues></_>
        <_>
          <internalNodes>
            0 -1 269 -8.5383415222167969e-02</internalNodes>
          <leafValues>
            -1.0298417806625366e+00 5.6865863502025604e-02</leafValues></_>
        <_>
          <internalNodes>
            0 -1 72 8.1379292532801628e-03</internalNodes>
          <leafValues>
            5.9369184076786041e-02 -9.0753114223480225e-01</leafValues></_>
        <_>
          <internalNodes>
            0 -1 470 3.0707643600180745e-04</internalNodes>
          <leafValues>
            -1.1903727054595947e-01 3.9712300896644592e-01</leafValues></_>
        <_>
          <internalNodes>
            0 -1 416 2.6215068064630032e-03</internalNodes>
          <leafValues>
            -9.9360853433609009e-02 4.7605767846107483e-01</leafValues></_>
        <_>
          <internalNodes>
            0 -1 124 -8.0338288098573685e-03</internalNodes>
          <leafValues>
            -2.4912865459918976e-01 1.7576767504215240e-01</leafValues></_>
        <_>
          <internalNodes>
            0 -1 475 -1.1985501274466515e-02</internalNodes>
          <leafValues>
            6.3696824014186859e-02 -8.0538964271545410e-01</leafValues></_>
        <_>
          <internalNodes>
            0 -1 452 6.6202161833643913e-03</internalNodes>
          <leafValues>
            1.0448741912841797e-01 -4.8336121439933777e-01</leafValues></_>
        <_>
          <internalNodes>
            0 -1 352 -1.4574781525880098e-03</internalNodes>
          <leafValues>
            3.5133150219917297e-01 -1.3742808997631073e-01</leafValues></_>
        <_>
          <internalNodes>
            0 -1 233 9.8091233521699905e-03</internalNodes>
          <leafValues>
            1.3516061007976532e-01 -3.3874520659446716e-01</leafValues></_>
        <_>
          <internalNodes>
            0 -1 464 4.4278651475906372e-03</internalNodes>
          <leafValues>
            -8.7813429534435272e-02 5.7948112487792969e-01</leafValues></_>
        <_>
          <internalNodes>
            0 -1 142 7.2799429297447205e-02</internalNodes>
          <leafValues>
            6.1924804002046585e-02 -8.8285475969314575e-01</leafValues></_>
        <_>
          <internalNodes>
            0 -1 174 4.5013362541794777e-03</internalNodes>
          <leafValues>
            -1.0576229542493820e-01 4.8839485645294189e-01</leafValues></_>
        <_>
          <internalNodes>
            0 -1 286 -6.9525633007287979e-03</internalNodes>
          <leafValues>
            -4.1204759478569031e-01 1.1536122113466263e-01</leafValues></_>
        <_>
          <internalNodes>
            0 -1 309 -1.1509428732097149e-03</internalNodes>
          <leafValues>
            7.2211009263992310e-01 -7.1291387081146240e-02</leafValues></_>
        <_>
          <internalNodes>
            0 -1 369 3.6569207906723022e-02</internalNodes>
          <leafValues>
            8.5180968046188354e-02 -6.2696105241775513e-01</leafValues></_>
        <_>
          <internalNodes>
            0 -1 189 8.9646484702825546e-03</internalNodes>
          <leafValues>
            -1.9867517054080963e-01 2.8947687149047852e-01</leafValues></_>
        <_>
          <internalNodes>
            0 -1 78 9.9447742104530334e-04</internalNodes>
          <leafValues>
            -9.5943309366703033e-02 4.9620547890663147e-01</leafValues></_>
        <_>
          <internalNodes>
            0 -1 465 -1.4591789804399014e-02</internalNodes>
          <leafValues>
            -9.8463672399520874e-01 6.2401842325925827e-02</leafValues></_>
        <_>
          <internalNodes>
            0 -1 75 -3.0531197786331177e-02</internalNodes>
          <leafValues>
            -8.2070958614349365e-01 6.3042171299457550e-02</leafValues></_>
        <_>
          <internalNodes>
            0 -1 184 -1.8737143836915493e-03</internalNodes>
          <leafValues>
            5.8984172344207764e-01 -8.5591554641723633e-02</leafValues></_>
        <_>
          <internalNodes>
            0 -1 321 -2.8325915336608887e-03</internalNodes>
          <leafValues>
            4.8150527477264404e-01 -9.7319893538951874e-02</leafValues></_>
        <_>
          <internalNodes>
            0 -1 162 -3.2769411336630583e-03</internalNodes>
          <leafValues>
            -5.4547625780105591e-01 1.0067414492368698e-01</leafValues></_>
        <_>
          <internalNodes>
            0 -1 68 -6.2732085585594177e-02</internalNodes>
          <leafValues>
            -7.1588329970836639e-02 7.6310795545578003e-01</leafValues></_>
        <_>
          <internalNodes>
            0 -1 335 2.6947916485369205e-03</internalNodes>
          <leafValues>
            8.2367740571498871e-02 -5.8104944229125977e-01</leafValues></_>
        <_>
          <internalNodes>
            0 -1 422 -2.8737140819430351e-03</internalNodes>
          <leafValues>
            4.2073658108711243e-01 -1.2242208421230316e-01</leafValues></_>
        <_>
          <internalNodes>
            0 -1 126 1.7436763737350702e-03</internalNodes>
          <leafValues>
            1.2742117047309875e-01 -3.3878913521766663e-01</leafValues></_>
        <_>
          <internalNodes>
            0 -1 149 -6.1108134686946869e-02</internalNodes>
          <leafValues>
            3.1695589423179626e-01 -1.3480813801288605e-01</leafValues></_>
        <_>
          <internalNodes>
            0 -1 258 -1.5917050838470459e-01</internalNodes>
          <leafValues>
            -7.3109090328216553e-01 6.4507126808166504e-02</leafValues></_>
        <_>
          <internalNodes>
            0 -1 283 -1.2082399334758520e-03</internalNodes>
          <leafValues>
            -1.8765182793140411e-01 2.7386602759361267e-01</leafValues></_>
        <_>
          <internalNodes>
            0 -1 545 -1.7266196664422750e-03</internalNodes>
          <leafValues>
            3.9888921380043030e-01 -1.3304984569549561e-01</leafValues></_>
        <_>
          <internalNodes>
            0 -1 291 -1.8687630654312670e-04</internalNodes>
          <leafValues>
            -2.3087345063686371e-01 1.8968103826045990e-01</leafValues></_>
        <_>
          <internalNodes>
            0 -1 86 -1.7174484673887491e-03</internalNodes>
          <leafValues>
            4.6051979064941406e-01 -1.1181467771530151e-01</leafValues></_>
        <_>
          <internalNodes>
            0 -1 151 -7.9958319664001465e-02</internalNodes>
          <leafValues>
            -7.0709896087646484e-01 6.9694086909294128e-02</leafValues></_>
        <_>
          <internalNodes>
            0 -1 53 6.3816094771027565e-03</internalNodes>
          <leafValues>
            5.2968110889196396e-02 -1.1391532421112061e+00</leafValues></_>
        <_>
          <internalNodes>
            0 -1 103 1.7639563884586096e-03</internalNodes>
          <leafValues>
            -2.2697734832763672e-01 1.9444639980792999e-01</leafValues></_></weakClassifiers></_>
    <!-- stage 5 -->
    <_>
      <maxWeakCount>52</maxWeakCount>
      <stageThreshold>-1.1135975122451782e+00</stageThreshold>
      <weakClassifiers>
        <_>
          <internalNodes>
            0 -1 356 6.3690980896353722e-03</internalNodes>
          <leafValues>
            -5.6740021705627441e-01 5.2403938025236130e-02</leafValues></_>
        <_>
          <internalNodes>
            0 -1 171 7.2636716067790985e-03</internalNodes>
          <leafValues>
            1.6225305199623108e-01 -3.9707991480827332e-01</leafValues></_>
        <_>
          <internalNodes>
            0 -1 529 -1.3000115752220154e-02</internalNodes>
          <leafValues>
            4.2763340473175049e-01 -1.3315334916114807e-01</leafValues></_>
        <_>
          <internalNodes>
            0 -1 364 7.3942705057561398e-03</internalNodes>
          <leafValues>
            6.1012312769889832e-02 -9.8232996463775635e-01</leafValues></_>
        <_>
          <internalNodes>
            0 -1 235 -1.4482573606073856e-03</internalNodes>
          <leafValues>
            5.4535669088363647e-01 -8.6421132087707520e-02</leafValues></_>
        <_>
          <internalNodes>
            0 -1 276 4.7820679843425751e-02</internalNodes>
          <leafValues>
            8.3703011274337769e-02 -5.5983901023864746e-01</leafValues></_>
        <_>
          <internalNodes>
            0 -1 372 -8.2476940006017685e-03</internalNodes>
          <leafValues>
            8.7879049777984619e-01 -2.9967015609145164e-02</leafValues></_>
        <_>
          <internalNodes>
            0 -1 222 -3.5876752808690071e-03</internalNodes>
          <leafValues>
            1.5664991736412048e-01 -2.9800605773925781e-01</leafValues></_>
        <_>
          <internalNodes>
            0 -1 428 5.1152966916561127e-03</internalNodes>
          <leafValues>
            -6.7584253847599030e-02 8.3443492650985718e-01</leafValues></_>
        <_>
          <internalNodes>
            0 -1 204 7.0024109445512295e-03</internalNodes>
          <leafValues>
            -1.2735258042812347e-01 4.4530889391899109e-01</leafValues></_>
        <_>
          <internalNodes>
            0 -1 567 -1.7804735107347369e-03</internalNodes>
          <leafValues>
            -2.2860202193260193e-01 2.6192864775657654e-01</leafValues></_>
        <_>
          <internalNodes>
            0 -1 522 4.9787104129791260e-02</internalNodes>
          <leafValues>
            -4.3934945017099380e-02 1.1904863119125366e+00</leafValues></_>
        <_>
          <internalNodes>
            0 -1 489 -7.3551130481064320e-03</internalNodes>
          <leafValues>
            1.8005578219890594e-01 -2.9171964526176453e-01</leafValues></_>
        <_>
          <internalNodes>
            0 -1 214 -4.1409931145608425e-04</internalNodes>
          <leafValues>
            -1.7535623908042908e-01 3.0280658602714539e-01</leafValues></_>
        <_>
          <internalNodes>
            0 -1 376 4.0509730577468872e-02</internalNodes>
          <leafValues>
            -9.0022191405296326e-02 7.0564407110214233e-01</leafValues></_>
        <_>
          <internalNodes>
            0 -1 451 -4.2034285143017769e-03</internalNodes>
          <leafValues>
            4.0359795093536377e-01 -1.2491863965988159e-01</leafValues></_>
        <_>
          <internalNodes>
            0 -1 62 2.1910607756581157e-04</internalNodes>
          <leafValues>
            1.2627747654914856e-01 -3.6109489202499390e-01</leafValues></_>
        <_>
          <internalNodes>
            0 -1 32 -5.9524208307266235e-02</internalNodes>
          <leafValues>
            4.6401613950729370e-01 -1.0040522366762161e-01</leafValues></_>
        <_>
          <internalNodes>
            0 -1 34 -4.7513015568256378e-02</internalNodes>
          <leafValues>
            -4.2364588379859924e-01 1.1374121904373169e-01</leafValues></_>
        <_>
          <internalNodes>
            0 -1 297 -4.8363760113716125e-02</internalNodes>
          <leafValues>
            -5.5986171960830688e-01 8.4190979599952698e-02</leafValues></_>
        <_>
          <internalNodes>
            0 -1 93 -8.2695472519844770e-04</internalNodes>
          <leafValues>
            3.8364890217781067e-01 -1.1640469729900360e-01</leafValues></_>
        <_>
          <internalNodes>
            0 -1 88 9.9281994625926018e-03</internalNodes>
          <leafValues>
            -1.2870079278945923e-01 3.4773740172386169e-01</leafValues></_>
        <_>
          <internalNodes>
            0 -1 244 -2.9873712919652462e-03</internalNodes>
          <leafValues>
            4.2823222279548645e-01 -1.0185676813125610e-01</leafValues></_>
        <_>
          <internalNodes>
            0 -1 115 -9.0185627341270447e-02</internalNodes>
          <leafValues>
            3.4437590837478638e-01 -1.2295833975076675e-01</leafValues></_>
        <_>
          <internalNodes>
            0 -1 156 -1.7901774495840073e-02</internalNodes>
          <leafValues>
            -1.2514783143997192e+00 5.8043319731950760e-02</leafValues></_>
        <_>
          <internalNodes>
            0 -1 170 1.6759727150201797e-02</internalNodes>
          <leafValues>
            1.4096489548683167e-01 -2.9611149430274963e-01</leafValues></_>
        <_>
          <internalNodes>
            0 -1 14 -9.2070013284683228e-02</internalNodes>
          <leafValues>
            -9.4710546731948853e-01 5.4560925811529160e-02</leafValues></_>
        <_>
          <internalNodes>
            0 -1 185 -3.0764108523726463e-03</internalNodes>
          <leafValues>
            -3.8009881973266602e-01 1.2253074347972870e-01</leafValues></_>
        <_>
          <internalNodes>
            0 -1 273 3.1056618900038302e-04</internalNodes>
          <leafValues>
            -1.7924380302429199e-01 2.5611028075218201e-01</leafValues></_>
        <_>
          <internalNodes>
            0 -1 9 1.5901435166597366e-02</internalNodes>
          <leafValues>
            4.2316813021898270e-02 -2.1847751140594482e+00</leafValues></_>
        <_>
          <internalNodes>
            0 -1 246 5.1860008388757706e-03</internalNodes>
          <leafValues>
            -6.3325844705104828e-02 9.0979403257369995e-01</leafValues></_>
        <_>
          <internalNodes>
            0 -1 467 2.7866140007972717e-03</internalNodes>
          <leafValues>
            1.0557696223258972e-01 -4.7378072142601013e-01</leafValues></_>
        <_>
          <internalNodes>
            0 -1 493 2.1701180376112461e-03</internalNodes>
          <leafValues>
            8.2750178873538971e-02 -6.5506947040557861e-01</leafValues></_>
        <_>
          <internalNodes>
            0 -1 236 5.6748567149043083e-03</internalNodes>
          <leafValues>
            -1.0157272219657898e-01 5.3340005874633789e-01</leafValues></_>
        <_>
          <internalNodes>
            0 -1 518 -8.8298153132200241e-03</internalNodes>
          <leafValues>
            3.0139124393463135e-01 -1.8491956591606140e-01</leafValues></_>
        <_>
          <internalNodes>
            0 -1 302 -7.1148378774523735e-03</internalNodes>
          <leafValues>
            -6.1895781755447388e-01 9.2978224158287048e-02</leafValues></_>
        <_>
          <internalNodes>
            0 -1 557 -2.7031083591282368e-03</internalNodes>
          <leafValues>
            7.7703070640563965e-01 -7.5033515691757202e-02</leafValues></_>
        <_>
          <internalNodes>
            0 -1 19 -3.2427830155938864e-03</internalNodes>
          <leafValues>
            5.6676644086837769e-01 -9.9851071834564209e-02</leafValues></_>
        <_>
          <internalNodes>
            0 -1 154 -2.9028456658124924e-02</internalNodes>
          <leafValues>
            -5.8768528699874878e-01 8.5159800946712494e-02</leafValues></_>
        <_>
          <internalNodes>
            0 -1 188 2.7843685820698738e-03</internalNodes>
          <leafValues>
            -1.2836098670959473e-01 3.9678725600242615e-01</leafValues></_>
        <_>
          <internalNodes>
            0 -1 167 3.4536374732851982e-04</internalNodes>
          <leafValues>
            1.4753586053848267e-01 -3.3555206656455994e-01</leafValues></_>
        <_>
          <internalNodes>
            0 -1 26 -3.1389750540256500e-02</internalNodes>
          <leafValues>
            -1.7599214613437653e-01 2.5004777312278748e-01</leafValues></_>
        <_>
          <internalNodes>
            0 -1 346 -2.2284453734755516e-02</internalNodes>
          <leafValues>
            7.0180498063564301e-02 -9.5620936155319214e-01</leafValues></_>
        <_>
          <internalNodes>
            0 -1 359 -1.5036312397569418e-03</internalNodes>
          <leafValues>
            -1.3868747949600220e+00 5.1635172218084335e-02</leafValues></_>
        <_>
          <internalNodes>
            0 -1 316 1.3144262135028839e-02</internalNodes>
          <leafValues>
            1.8813860416412354e-01 -2.4900372326374054e-01</leafValues></_>
        <_>
          <internalNodes>
            0 -1 131 1.0025806725025177e-02</internalNodes>
          <leafValues>
            -1.1089653521776199e-01 4.9916568398475647e-01</leafValues></_>
        <_>
          <internalNodes>
            0 -1 423 1.7472615581937134e-04</internalNodes>
          <leafValues>
            1.7795535922050476e-01 -2.6980236172676086e-01</leafValues></_>
        <_>
          <internalNodes>
            0 -1 278 -3.9703575894236565e-03</internalNodes>
          <leafValues>
            -2.2319571673870087e-01 2.0189101994037628e-01</leafValues></_>
        <_>
          <internalNodes>
            0 -1 345 -1.0636477963998914e-03</internalNodes>
          <leafValues>
            4.2142075300216675e-01 -1.1834094673395157e-01</leafValues></_>
        <_>
          <internalNodes>
            0 -1 565 -4.8959353007376194e-03</internalNodes>
          <leafValues>
            -1.0255923271179199e+00 5.5312220007181168e-02</leafValues></_>
        <_>
          <internalNodes>
            0 -1 118 1.2443570885807276e-03</internalNodes>
          <leafValues>
            7.9997368156909943e-02 -6.3674050569534302e-01</leafValues></_>
        <_>
          <internalNodes>
            0 -1 501 -7.8751947730779648e-03</internalNodes>
          <leafValues>
            -1.0620228052139282e+00 6.0098346322774887e-02</leafValues></_></weakClassifiers></_>
    <!-- stage 6 -->
    <_>
      <maxWeakCount>46</maxWeakCount>
      <stageThreshold>-8.9834439754486084e-01</stageThreshold>
      <weakClassifiers>
        <_>
          <internalNodes>
            0 -1 337 1.1993815191090107e-02</internalNodes>
          <leafValues>
            -1.5261627733707428e-01 -9.6064674854278564e-01</leafValues></_>
        <_>
          <internalNodes>
            0 -1 63 -4.4286148622632027e-03</internalNodes>
          <leafValues>
            -1.6618448495864868e-01 3.7976619601249695e-01</leafValues></_>
        <_>
          <internalNodes>
            0 -1 100 4.7266921028494835e-03</internalNodes>
          <leafValues>
            -1.1054132878780365e-01 5.1195991039276123e-01</leafValues></_>
        <_>
          <internalNodes>
            0 -1 140 9.8535120487213135e-03</internalNodes>
          <leafValues>
            1.7521093785762787e-01 -3.2233729958534241e-01</leafValues></_>
        <_>
          <internalNodes>
            0 -1 531 6.0009002685546875e-02</internalNodes>
          <leafValues>
            1.1462432146072388e-01 -5.6157642602920532e-01</leafValues></_>
        <_>
          <internalNodes>
            0 -1 51 -1.7553295940160751e-02</internalNodes>
          <leafValues>
            5.3837150335311890e-01 -8.4154099225997925e-02</leafValues></_>
        <_>
          <internalNodes>
            0 -1 245 6.2833186239004135e-03</internalNodes>
          <leafValues>
            -1.0025747865438461e-01 5.7624858617782593e-01</leafValues></_>
        <_>
          <internalNodes>
            0 -1 437 6.5513841807842255e-02</internalNodes>
          <leafValues>
            -7.5900420546531677e-02 8.0681532621383667e-01</leafValues></_>
        <_>
          <internalNodes>
            0 -1 193 7.9869396984577179e-02</internalNodes>
          <leafValues>
            1.1438138037919998e-01 -4.5791849493980408e-01</leafValues></_>
        <_>
          <internalNodes>
            0 -1 95 4.2206443846225739e-02</internalNodes>
          <leafValues>
            5.1758546382188797e-02 -9.7581970691680908e-01</leafValues></_>
        <_>
          <internalNodes>
            0 -1 492 -2.0389254204928875e-03</internalNodes>
          <leafValues>
            4.0977600216865540e-01 -1.0639721900224686e-01</leafValues></_>
        <_>
          <internalNodes>
            0 -1 46 1.0288715362548828e-02</internalNodes>
          <leafValues>
            -7.9283460974693298e-02 6.6694819927215576e-01</leafValues></_>
        <_>
          <internalNodes>
            0 -1 207 -2.1719750948250294e-03</internalNodes>
          <leafValues>
            2.5490403175354004e-01 -1.8126174807548523e-01</leafValues></_>
        <_>
          <internalNodes>
            0 -1 260 -2.3938078433275223e-02</internalNodes>
          <leafValues>
            -7.5702917575836182e-01 8.0457590520381927e-02</leafValues></_>
        <_>
          <internalNodes>
            0 -1 339 -2.5181001983582973e-03</internalNodes>
          <leafValues>
            6.5310966968536377e-01 -8.5016414523124695e-02</leafValues></_>
        <_>
          <internalNodes>
            0 -1 378 -1.6430133581161499e-01</internalNodes>
          <leafValues>
            6.0572493076324463e-01 -8.3839476108551025e-02</leafValues></_>
        <_>
          <internalNodes>
            0 -1 50 -1.0733549296855927e-01</internalNodes>
          <leafValues>
            -4.9724271893501282e-01 9.9028199911117554e-02</leafValues></_>
        <_>
          <internalNodes>
            0 -1 55 -7.5744213536381721e-03</internalNodes>
          <leafValues>
            6.1728996038436890e-01 -7.9615265130996704e-02</leafValues></_>
        <_>
          <internalNodes>
            0 -1 175 3.5411998396739364e-04</internalNodes>
          <leafValues>
            -1.3032732903957367e-01 3.9618846774101257e-01</leafValues></_>
        <_>
          <internalNodes>
            0 -1 561 1.3353321701288223e-02</internalNodes>
          <leafValues>
            -5.8647990226745605e-02 8.5640347003936768e-01</leafValues></_>
        <_>
          <internalNodes>
            0 -1 113 -1.8134154379367828e-02</internalNodes>
          <leafValues>
            -4.2045640945434570e-01 1.0461485385894775e-01</leafValues></_>
        <_>
          <internalNodes>
            0 -1 0 -1.1584980529733002e-04</internalNodes>
          <leafValues>
            -3.4927633404731750e-01 1.1879277229309082e-01</leafValues></_>
        <_>
          <internalNodes>
            0 -1 23 5.6703621521592140e-03</internalNodes>
          <leafValues>
            -1.2829966843128204e-01 3.5418763756752014e-01</leafValues></_>
        <_>
          <internalNodes>
            0 -1 18 -8.1909485161304474e-03</internalNodes>
          <leafValues>
            -3.1288230419158936e-01 1.7634178698062897e-01</leafValues></_>
        <_>
          <internalNodes>
            0 -1 426 1.9666329026222229e-02</internalNodes>
          <leafValues>
            6.5193466842174530e-02 -1.0323492288589478e+00</leafValues></_>
        <_>
          <internalNodes>
            0 -1 101 -3.6848434247076511e-03</internalNodes>
          <leafValues>
            6.0156494379043579e-01 -1.1691156029701233e-01</leafValues></_>
        <_>
          <internalNodes>
            0 -1 436 -5.4574483074247837e-03</internalNodes>
          <leafValues>
            5.3476071357727051e-01 -9.0799309313297272e-02</leafValues></_>
        <_>
          <internalNodes>
            0 -1 474 -1.6172122210264206e-02</internalNodes>
          <leafValues>
            1.8904876708984375e-01 -2.7079561352729797e-01</leafValues></_>
        <_>
          <internalNodes>
            0 -1 490 5.6659001857042313e-02</internalNodes>
          <leafValues>
            -7.4265554547309875e-02 7.6263052225112915e-01</leafValues></_>
        <_>
          <internalNodes>
            0 -1 183 -1.3250352349132299e-03</internalNodes>
          <leafValues>
            7.5272023677825928e-01 -7.3140494525432587e-02</leafValues></_>
        <_>
          <internalNodes>
            0 -1 150 -5.3129901061765850e-05</internalNodes>
          <leafValues>
            -2.8044807910919189e-01 1.7390356957912445e-01</leafValues></_>
        <_>
          <internalNodes>
            0 -1 406 4.3978855013847351e-02</internalNodes>
          <leafValues>
            6.7026823759078979e-02 -9.8238766193389893e-01</leafValues></_>
        <_>
          <internalNodes>
            0 -1 97 -8.8807562133297324e-04</internalNodes>
          <leafValues>
            -2.9204559326171875e-01 1.8674986064434052e-01</leafValues></_>
        <_>
          <internalNodes>
            0 -1 37 -2.6304403319954872e-02</internalNodes>
          <leafValues>
            -6.6010385751724243e-01 8.6700960993766785e-02</leafValues></_>
        <_>
          <internalNodes>
            0 -1 64 1.9660003483295441e-02</internalNodes>
          <leafValues>
            7.2087280452251434e-02 -7.7729374170303345e-01</leafValues></_>
        <_>
          <internalNodes>
            0 -1 164 -5.2534498274326324e-02</internalNodes>
          <leafValues>
            3.4637588262557983e-01 -1.5445941686630249e-01</leafValues></_>
        <_>
          <internalNodes>
            0 -1 570 -1.1875573545694351e-03</internalNodes>
          <leafValues>
            -3.3879572153091431e-01 1.3504813611507416e-01</leafValues></_>
        <_>
          <internalNodes>
            0 -1 441 -2.1082418970763683e-03</internalNodes>
          <leafValues>
            -3.9580291509628296e-01 1.3958916068077087e-01</leafValues></_>
        <_>
          <internalNodes>
            0 -1 427 -2.0794568117707968e-03</internalNodes>
          <leafValues>
            5.4018992185592651e-01 -8.8162913918495178e-02</leafValues></_>
        <_>
          <internalNodes>
            0 -1 440 1.8398597836494446e-02</internalNodes>
          <leafValues>
            9.7170546650886536e-02 -5.4426944255828857e-01</leafValues></_>
        <_>
          <internalNodes>
            0 -1 215 6.1726052081212401e-04</internalNodes>
          <leafValues>
            -1.6581068933010101e-01 4.0734982490539551e-01</leafValues></_>
        <_>
          <internalNodes>
            0 -1 355 -8.2713607698678970e-03</internalNodes>
          <leafValues>
            7.6853519678115845e-01 -7.3195047676563263e-02</leafValues></_>
        <_>
          <internalNodes>
            0 -1 448 2.0413204038050026e-04</internalNodes>
          <leafValues>
            1.3859175145626068e-01 -3.6646866798400879e-01</leafValues></_>
        <_>
          <internalNodes>
            0 -1 178 3.1181732192635536e-03</internalNodes>
          <leafValues>
            2.5671195983886719e-01 -2.1394579112529755e-01</leafValues></_>
        <_>
          <internalNodes>
            0 -1 61 4.2705750092864037e-03</internalNodes>
          <leafValues>
            -7.1109704673290253e-02 9.1963219642639160e-01</leafValues></_>
        <_>
          <internalNodes>
            0 -1 119 -1.5126794460229576e-04</internalNodes>
          <leafValues>
            -2.9357144236564636e-01 1.5632736682891846e-01</leafValues></_></weakClassifiers></_>
    <!-- stage 7 -->
    <_>
      <maxWeakCount>57</maxWeakCount>
      <stageThreshold>-8.8974142074584961e-01</stageThreshold>
      <weakClassifiers>
        <_>
          <internalNodes>
            0 -1 6 1.1172900907695293e-02</internalNodes>
          <leafValues>
            -5.1090627908706665e-01 1.5717515349388123e-01</leafValues></_>
        <_>
          <internalNodes>
            0 -1 431 1.0304001159965992e-02</internalNodes>
          <leafValues>
            -1.6702736914157867e-01 3.6190629005432129e-01</leafValues></_>
        <_>
          <internalNodes>
            0 -1 343 1.9815813750028610e-02</internalNodes>
          <leafValues>
            6.2112845480442047e-02 -8.8892531394958496e-01</leafValues></_>
        <_>
          <internalNodes>
            0 -1 54 4.1281869634985924e-03</internalNodes>
          <leafValues>
            -5.2906136959791183e-02 5.9922105073928833e-01</leafValues></_>
        <_>
          <internalNodes>
            0 -1 500 -1.4656614512205124e-03</internalNodes>
          <leafValues>
            4.3956864625215530e-02 -8.9597404003143311e-01</leafValues></_>
        <_>
          <internalNodes>
            0 -1 43 -3.1164156273007393e-02</internalNodes>
          <leafValues>
            -1.5498457849025726e-01 2.7946481108665466e-01</leafValues></_>
        <_>
          <internalNodes>
            0 -1 408 4.9331307411193848e-02</internalNodes>
          <leafValues>
            -7.7330529689788818e-02 8.0271291732788086e-01</leafValues></_>
        <_>
          <internalNodes>
            0 -1 200 4.1156206279993057e-03</internalNodes>
          <leafValues>
            1.0163291543722153e-01 -4.0479314327239990e-01</leafValues></_>
        <_>
          <internalNodes>
            0 -1 87 -2.2661078721284866e-02</internalNodes>
          <leafValues>
            -3.7063157558441162e-01 1.2866879999637604e-01</leafValues></_>
        <_>
          <internalNodes>
            0 -1 147 -1.3731935992836952e-02</internalNodes>
          <leafValues>
            5.0880378484725952e-01 -8.4549792110919952e-02</leafValues></_>
        <_>
          <internalNodes>
            0 -1 421 -4.4551812112331390e-02</internalNodes>
          <leafValues>
            -5.8551585674285889e-01 6.0671731829643250e-02</leafValues></_>
        <_>
          <internalNodes>
            0 -1 396 -1.0334467515349388e-03</internalNodes>
          <leafValues>
            3.4149941802024841e-01 -1.4622150361537933e-01</leafValues></_>
        <_>
          <internalNodes>
            0 -1 405 3.0743195675313473e-03</internalNodes>
          <leafValues>
            1.1278002709150314e-01 -3.1412839889526367e-01</leafValues></_>
        <_>
          <internalNodes>
            0 -1 208 3.8584530353546143e-02</internalNodes>
          <leafValues>
            -6.7071467638015747e-02 5.9549415111541748e-01</leafValues></_>
        <_>
          <internalNodes>
            0 -1 0 -1.0841856710612774e-03</internalNodes>
          <leafValues>
            -7.8136050701141357e-01 4.6036403626203537e-02</leafValues></_>
        <_>
          <internalNodes>
            0 -1 461 1.9236099906265736e-03</internalNodes>
          <leafValues>
            -8.7277941405773163e-02 4.3326577544212341e-01</leafValues></_>
        <_>
          <internalNodes>
            0 -1 144 1.7674159258604050e-02</internalNodes>
          <leafValues>
            5.2433375269174576e-02 -5.6717801094055176e-01</leafValues></_>
        <_>
          <internalNodes>
            0 -1 521 -8.5356284398585558e-04</internalNodes>
          <leafValues>
            2.6828828454017639e-01 -1.1737439781427383e-01</leafValues></_>
        <_>
          <internalNodes>
            0 -1 449 3.1581339426338673e-03</internalNodes>
          <leafValues>
            7.8863397240638733e-02 -4.4487816095352173e-01</leafValues></_>
        <_>
          <internalNodes>
            0 -1 413 1.0722968727350235e-02</internalNodes>
          <leafValues>
            -3.9365679025650024e-02 1.2815108299255371e+00</leafValues></_>
        <_>
          <internalNodes>
            0 -1 560 -1.0437317192554474e-02</internalNodes>
          <leafValues>
            4.2480662465095520e-01 -9.8911702632904053e-02</leafValues></_>
        <_>
          <internalNodes>
            0 -1 60 -8.5393842309713364e-03</internalNodes>
          <leafValues>
            -2.3554417490959167e-01 1.6041165590286255e-01</leafValues></_>
        <_>
          <internalNodes>
            0 -1 306 -6.2616221606731415e-02</internalNodes>
          <leafValues>
            -6.4754778146743774e-01 5.7827949523925781e-02</leafValues></_>
        <_>
          <internalNodes>
            0 -1 146 5.2797747775912285e-03</internalNodes>
          <leafValues>
            -6.1886083334684372e-02 5.8216053247451782e-01</leafValues></_>
        <_>
          <internalNodes>
            0 -1 238 -2.8755445964634418e-03</internalNodes>
          <leafValues>
            1.1903231590986252e-01 -2.9145830869674683e-01</leafValues></_>
        <_>
          <internalNodes>
            0 -1 571 -1.8019290291704237e-04</internalNodes>
          <leafValues>
            -2.8537648916244507e-01 1.0852227360010147e-01</leafValues></_>
        <_>
          <internalNodes>
            0 -1 537 -1.6935951134655625e-04</internalNodes>
          <leafValues>
            2.3889814317226410e-01 -1.4041738212108612e-01</leafValues></_>
        <_>
          <internalNodes>
            0 -1 415 -6.4379972172901034e-04</internalNodes>
          <leafValues>
            2.9423624277114868e-01 -1.1914456635713577e-01</leafValues></_>
        <_>
          <internalNodes>
            0 -1 232 -1.0397655423730612e-03</internalNodes>
          <leafValues>
            -2.6292818784713745e-01 1.4441052079200745e-01</leafValues></_>
        <_>
          <internalNodes>
            0 -1 234 4.9371505156159401e-03</internalNodes>
          <leafValues>
            6.1155881732702255e-02 -6.6988933086395264e-01</leafValues></_>
        <_>
          <internalNodes>
            0 -1 397 -4.5148059725761414e-02</internalNodes>
          <leafValues>
            -1.3736085891723633e+00 3.8422245532274246e-02</leafValues></_>
        <_>
          <internalNodes>
            0 -1 454 1.4175908640027046e-02</internalNodes>
          <leafValues>
            6.9565795361995697e-02 -6.1714392900466919e-01</leafValues></_>
        <_>
          <internalNodes>
            0 -1 85 1.6313638770952821e-03</internalNodes>
          <leafValues>
            -1.5425096452236176e-01 2.4652820825576782e-01</leafValues></_>
        <_>
          <internalNodes>
            0 -1 539 4.3018232099711895e-03</internalNodes>
          <leafValues>
            -6.9489918649196625e-02 5.7362663745880127e-01</leafValues></_>
        <_>
          <internalNodes>
            0 -1 450 1.0202830284833908e-01</internalNodes>
          <leafValues>
            2.8921773657202721e-02 -5.7564578056335449e+00</leafValues></_>
        <_>
          <internalNodes>
            0 -1 80 -5.5506156058982015e-05</internalNodes>
          <leafValues>
            -2.2048372030258179e-01 1.5953011810779572e-01</leafValues></_>
        <_>
          <internalNodes>
            0 -1 370 8.7035801261663437e-03</internalNodes>
          <leafValues>
            -1.0402013361454010e-01 3.4656542539596558e-01</leafValues></_>
        <_>
          <internalNodes>
            0 -1 122 2.4295905604958534e-03</internalNodes>
          <leafValues>
            6.6171847283840179e-02 -5.7611954212188721e-01</leafValues></_>
        <_>
          <internalNodes>
            0 -1 186 -7.9193309647962451e-04</internalNodes>
          <leafValues>
            5.0950902700424194e-01 -7.7555768191814423e-02</leafValues></_>
        <_>
          <internalNodes>
            0 -1 11 -5.3530912846326828e-03</internalNodes>
          <leafValues>
            3.7763465195894241e-02 -9.8132586479187012e-01</leafValues></_>
        <_>
          <internalNodes>
            0 -1 22 -5.0573167391121387e-04</internalNodes>
          <leafValues>
            -3.6206445097923279e-01 1.1011678725481033e-01</leafValues></_>
        <_>
          <internalNodes>
            0 -1 295 -4.5926198363304138e-02</internalNodes>
          <leafValues>
            -6.1266887933015823e-02 7.1272975206375122e-01</leafValues></_>
        <_>
          <internalNodes>
            0 -1 44 2.2536683827638626e-02</internalNodes>
          <leafValues>
            -6.3331477344036102e-02 6.4826804399490356e-01</leafValues></_>
        <_>
          <internalNodes>
            0 -1 236 5.9763826429843903e-03</internalNodes>
          <leafValues>
            -1.0185680538415909e-01 3.9911499619483948e-01</leafValues></_>
        <_>
          <internalNodes>
            0 -1 542 -1.7787341028451920e-02</internalNodes>
          <leafValues>
            4.9604180455207825e-01 -8.7940156459808350e-02</leafValues></_>
        <_>
          <internalNodes>
            0 -1 528 2.1928171627223492e-03</internalNodes>
          <leafValues>
            -1.0851411521434784e-01 3.7714970111846924e-01</leafValues></_>
        <_>
          <internalNodes>
            0 -1 121 -1.9464996876195073e-04</internalNodes>
          <leafValues>
            -2.1772754192352295e-01 1.6618636250495911e-01</leafValues></_>
        <_>
          <internalNodes>
            0 -1 382 -1.0088919661939144e-03</internalNodes>
          <leafValues>
            2.8171131014823914e-01 -1.2166889011859894e-01</leafValues></_>
        <_>
          <internalNodes>
            0 -1 27 -4.8197084106504917e-03</internalNodes>
          <leafValues>
            3.2990717887878418e-01 -1.1345535516738892e-01</leafValues></_>
        <_>
          <internalNodes>
            0 -1 284 2.3744681850075722e-02</internalNodes>
          <leafValues>
            7.0535883307456970e-02 -5.2967500686645508e-01</leafValues></_>
        <_>
          <internalNodes>
            0 -1 70 -8.6583523079752922e-03</internalNodes>
          <leafValues>
            4.1554693132638931e-02 -1.6046240329742432e+00</leafValues></_>
        <_>
          <internalNodes>
            0 -1 569 9.7748794360086322e-05</internalNodes>
          <leafValues>
            1.4337366819381714e-01 -2.5190550088882446e-01</leafValues></_>
        <_>
          <internalNodes>
            0 -1 211 -9.1842198744416237e-03</internalNodes>
          <leafValues>
            -3.1603410840034485e-01 1.1645121127367020e-01</leafValues></_>
        <_>
          <internalNodes>
            0 -1 28 -1.5083745121955872e-01</internalNodes>
          <leafValues>
            2.6820808649063110e-01 -1.4699737727642059e-01</leafValues></_>
        <_>
          <internalNodes>
            0 -1 360 1.9335487158969045e-03</internalNodes>
          <leafValues>
            -1.0403206944465637e-01 3.5786768794059753e-01</leafValues></_>
        <_>
          <internalNodes>
            0 -1 300 -1.2489436194300652e-02</internalNodes>
          <leafValues>
            -3.7578234076499939e-01 9.3629635870456696e-02</leafValues></_>
        <_>
          <internalNodes>
            0 -1 277 -9.9146715365350246e-04</internalNodes>
          <leafValues>
            -1.7278578877449036e-01 2.3255541920661926e-01</leafValues></_></weakClassifiers></_>
    <!-- stage 8 -->
    <_>
      <maxWeakCount>62</maxWeakCount>
      <stageThreshold>-9.2266523838043213e-01</stageThreshold>
      <weakClassifiers>
        <_>
          <internalNodes>
            0 -1 71 2.0040689560119063e-04</internalNodes>
          <leafValues>
            -3.7500500679016113e-01 8.9587974548339844e-01</leafValues></_>
        <_>
          <internalNodes>
            0 -1 172 4.9422711133956909e-02</internalNodes>
          <leafValues>
            5.2769016474485397e-02 -8.8172405958175659e-01</leafValues></_>
        <_>
          <internalNodes>
            0 -1 296 2.6038810610771179e-02</internalNodes>
          <leafValues>
            1.4126235246658325e-01 -4.2209777235984802e-01</leafValues></_>
        <_>
          <internalNodes>
            0 -1 221 2.7654845267534256e-02</internalNodes>
          <leafValues>
            8.0321587622165680e-02 -5.4647988080978394e-01</leafValues></_>
        <_>
          <internalNodes>
            0 -1 435 -1.0834606364369392e-03</internalNodes>
          <leafValues>
            4.4213658571243286e-01 -9.8089963197708130e-02</leafValues></_>
        <_>
          <internalNodes>
            0 -1 280 7.2443066164851189e-04</internalNodes>
          <leafValues>
            -7.2918266057968140e-02 4.3634018301963806e-01</leafValues></_>
        <_>
          <internalNodes>
            0 -1 228 2.8078868053853512e-03</internalNodes>
          <leafValues>
            -1.8086887896060944e-01 2.1460738778114319e-01</leafValues></_>
        <_>
          <internalNodes>
            0 -1 66 1.6677312087267637e-03</internalNodes>
          <leafValues>
            1.0922455787658691e-01 -3.7230291962623596e-01</leafValues></_>
        <_>
          <internalNodes>
            0 -1 552 -7.6613696292042732e-03</internalNodes>
          <leafValues>
            2.1702513098716736e-01 -1.4414437115192413e-01</leafValues></_>
        <_>
          <internalNodes>
            0 -1 155 -1.3380023650825024e-02</internalNodes>
          <leafValues>
            7.1285969018936157e-01 -4.6359162777662277e-02</leafValues></_>
        <_>
          <internalNodes>
            0 -1 358 -6.1876152176409960e-04</internalNodes>
          <leafValues>
            -2.2280630469322205e-01 1.4338457584381104e-01</leafValues></_>
        <_>
          <internalNodes>
            0 -1 377 -1.1068810708820820e-03</internalNodes>
          <leafValues>
            3.8241752982139587e-01 -1.0023792088031769e-01</leafValues></_>
        <_>
          <internalNodes>
            0 -1 259 3.1989634037017822e-01</internalNodes>
          <leafValues>
            -6.7096948623657227e-02 5.7219409942626953e-01</leafValues></_>
        <_>
          <internalNodes>
            0 -1 227 5.8908024802803993e-03</internalNodes>
          <leafValues>
            -9.3389168381690979e-02 3.4312203526496887e-01</leafValues></_>
        <_>
          <internalNodes>
            0 -1 12 8.2371085882186890e-02</internalNodes>
          <leafValues>
            6.8438105285167694e-02 -5.6538552045822144e-01</leafValues></_>
        <_>
          <internalNodes>
            0 -1 135 3.4028075635433197e-02</internalNodes>
          <leafValues>
            -4.1384119540452957e-02 1.2912733554840088e+00</leafValues></_>
        <_>
          <internalNodes>
            0 -1 250 -1.9417494535446167e-02</internalNodes>
          <leafValues>
            6.4822435379028320e-01 -7.0468217134475708e-02</leafValues></_>
        <_>
          <internalNodes>
            0 -1 402 -5.7802656665444374e-03</internalNodes>
          <leafValues>
            -4.3573850393295288e-01 8.2454681396484375e-02</leafValues></_>
        <_>
          <internalNodes>
            0 -1 58 1.7359778285026550e-03</internalNodes>
          <leafValues>
            -9.8335400223731995e-02 3.6089485883712769e-01</leafValues></_>
        <_>
          <internalNodes>
            0 -1 290 1.6057245433330536e-02</internalNodes>
          <leafValues>
            5.9087134897708893e-02 -6.8555349111557007e-01</leafValues></_>
        <_>
          <internalNodes>
            0 -1 181 2.4597744923084974e-03</internalNodes>
          <leafValues>
            -1.2557737529277802e-01 2.9248514771461487e-01</leafValues></_>
        <_>
          <internalNodes>
            0 -1 505 -9.6820318140089512e-04</internalNodes>
          <leafValues>
            3.9498522877693176e-01 -8.0666795372962952e-02</leafValues></_>
        <_>
          <internalNodes>
            0 -1 389 -1.8133607506752014e-01</internalNodes>
          <leafValues>
            -7.3155391216278076e-01 5.1126871258020401e-02</leafValues></_>
        <_>
          <internalNodes>
            0 -1 391 -5.9170637279748917e-02</internalNodes>
          <leafValues>
            3.4753006696701050e-01 -1.2963990867137909e-01</leafValues></_>
        <_>
          <internalNodes>
            0 -1 549 -1.4211367815732956e-03</internalNodes>
          <leafValues>
            1.6839694976806641e-01 -2.1047623455524445e-01</leafValues></_>
        <_>
          <internalNodes>
            0 -1 430 -4.4257994741201401e-03</internalNodes>
          <leafValues>
            4.5704591274261475e-01 -9.0606242418289185e-02</leafValues></_>
        <_>
          <internalNodes>
            0 -1 38 -6.4276784658432007e-02</internalNodes>
          <leafValues>
            -9.3130815029144287e-01 4.5855671167373657e-02</leafValues></_>
        <_>
          <internalNodes>
            0 -1 348 -4.7942859964678064e-05</internalNodes>
          <leafValues>
            -2.0829913020133972e-01 1.8452814221382141e-01</leafValues></_>
        <_>
          <internalNodes>
            0 -1 350 4.5681488700211048e-04</internalNodes>
          <leafValues>
            1.5968775749206543e-01 -2.2988772392272949e-01</leafValues></_>
        <_>
          <internalNodes>
            0 -1 281 1.5044666826725006e-02</internalNodes>
          <leafValues>
            -5.0577960908412933e-02 8.0881690979003906e-01</leafValues></_>
        <_>
          <internalNodes>
            0 -1 13 -2.6292961090803146e-02</internalNodes>
          <leafValues>
            -1.7343332767486572e+00 2.4723391979932785e-02</leafValues></_>
        <_>
          <internalNodes>
            0 -1 387 -3.1253939960151911e-03</internalNodes>
          <leafValues>
            3.6591151356697083e-01 -9.4835579395294189e-02</leafValues></_>
        <_>
          <internalNodes>
            0 -1 357 -1.9225882133468986e-03</internalNodes>
          <leafValues>
            -2.8540614247322083e-01 1.1486221849918365e-01</leafValues></_>
        <_>
          <internalNodes>
            0 -1 81 2.3714052513241768e-03</internalNodes>
          <leafValues>
            -7.6893240213394165e-02 4.8984771966934204e-01</leafValues></_>
        <_>
          <internalNodes>
            0 -1 546 9.4477813690900803e-03</internalNodes>
          <leafValues>
            5.9759858995676041e-02 -6.2701195478439331e-01</leafValues></_>
        <_>
          <internalNodes>
            0 -1 108 2.0164493471384048e-03</internalNodes>
          <leafValues>
            -1.3796137273311615e-01 2.7154907584190369e-01</leafValues></_>
        <_>
          <internalNodes>
            0 -1 212 -3.2810851931571960e-02</internalNodes>
          <leafValues>
            -4.7805535793304443e-01 7.3168963193893433e-02</leafValues></_>
        <_>
          <internalNodes>
            0 -1 106 -7.9364152625203133e-03</internalNodes>
          <leafValues>
            5.3772687911987305e-01 -6.7541666328907013e-02</leafValues></_>
        <_>
          <internalNodes>
            0 -1 219 2.6152733713388443e-02</internalNodes>
          <leafValues>
            8.7449811398983002e-02 -5.1017957925796509e-01</leafValues></_>
        <_>
          <internalNodes>
            0 -1 79 -2.2091981372795999e-04</internalNodes>
          <leafValues>
            -3.1163072586059570e-01 1.1112529039382935e-01</leafValues></_>
        <_>
          <internalNodes>
            0 -1 79 2.5613250909373164e-04</internalNodes>
          <leafValues>
            1.1483784765005112e-01 -3.4210228919982910e-01</leafValues></_>
        <_>
          <internalNodes>
            0 -1 128 2.4577379226684570e-03</internalNodes>
          <leafValues>
            -1.1147714406251907e-01 3.1714037060737610e-01</leafValues></_>
        <_>
          <internalNodes>
            0 -1 379 1.2603086233139038e-01</internalNodes>
          <leafValues>
            -3.5578895360231400e-02 1.3243399858474731e+00</leafValues></_>
        <_>
          <internalNodes>
            0 -1 318 2.2494783625006676e-02</internalNodes>
          <leafValues>
            1.2575383484363556e-01 -3.9249098300933838e-01</leafValues></_>
        <_>
          <internalNodes>
            0 -1 289 5.1914947107434273e-03</internalNodes>
          <leafValues>
            6.8369291722774506e-02 -5.2224236726760864e-01</leafValues></_>
        <_>
          <internalNodes>
            0 -1 310 -2.2009553387761116e-02</internalNodes>
          <leafValues>
            4.2207360267639160e-01 -9.3821004033088684e-02</leafValues></_>
        <_>
          <internalNodes>
            0 -1 446 5.7614138349890709e-03</internalNodes>
          <leafValues>
            -4.9932479858398438e-02 7.9631954431533813e-01</leafValues></_>
        <_>
          <internalNodes>
            0 -1 263 1.7119467258453369e-01</internalNodes>
          <leafValues>
            -4.9356624484062195e-02 9.5367151498794556e-01</leafValues></_>
        <_>
          <internalNodes>
            0 -1 368 5.1505345851182938e-02</internalNodes>
          <leafValues>
            3.9566062390804291e-02 -1.0095894336700439e+00</leafValues></_>
        <_>
          <internalNodes>
            0 -1 556 -2.2330190986394882e-03</internalNodes>
          <leafValues>
            2.6875787973403931e-01 -1.2491277605295181e-01</leafValues></_>
        <_>
          <internalNodes>
            0 -1 362 -2.6366957463324070e-03</internalNodes>
          <leafValues>
            -2.0077809691429138e-01 1.8546767532825470e-01</leafValues></_>
        <_>
          <internalNodes>
            0 -1 364 -3.5471552982926369e-03</internalNodes>
          <leafValues>
            2.4768364429473877e-01 -1.4750476181507111e-01</leafValues></_>
        <_>
          <internalNodes>
            0 -1 566 -4.4378498569130898e-03</internalNodes>
          <leafValues>
            -8.3748213946819305e-02 4.6294698119163513e-01</leafValues></_>
        <_>
          <internalNodes>
            0 -1 403 5.9939683414995670e-03</internalNodes>
          <leafValues>
            -9.5467649400234222e-02 4.4163820147514343e-01</leafValues></_>
        <_>
          <internalNodes>
            0 -1 469 9.3692366499453783e-04</internalNodes>
          <leafValues>
            1.1794070154428482e-01 -3.0453288555145264e-01</leafValues></_>
        <_>
          <internalNodes>
            0 -1 527 -4.2207799851894379e-03</internalNodes>
          <leafValues>
            3.5160696506500244e-01 -1.0085655003786087e-01</leafValues></_>
        <_>
          <internalNodes>
            0 -1 114 6.0426238924264908e-03</internalNodes>
          <leafValues>
            6.5097950398921967e-02 -5.6096452474594116e-01</leafValues></_>
        <_>
          <internalNodes>
            0 -1 326 6.8227236624807119e-04</internalNodes>
          <leafValues>
            -1.0464129596948624e-01 3.1807044148445129e-01</leafValues></_>
        <_>
          <internalNodes>
            0 -1 334 -3.5731209209188819e-04</internalNodes>
          <leafValues>
            -2.0097550749778748e-01 1.5798756480216980e-01</leafValues></_>
        <_>
          <internalNodes>
            0 -1 476 -1.1033553164452314e-03</internalNodes>
          <leafValues>
            -1.9597680866718292e-01 1.6262188553810120e-01</leafValues></_>
        <_>
          <internalNodes>
            0 -1 483 4.3511699186637998e-04</internalNodes>
          <leafValues>
            1.1037899553775787e-01 -3.1121677160263062e-01</leafValues></_>
        <_>
          <internalNodes>
            0 -1 488 6.4539890736341476e-03</internalNodes>
          <leafValues>
            -7.6619274914264679e-02 4.9181938171386719e-01</leafValues></_></weakClassifiers></_>
    <!-- stage 9 -->
    <_>
      <maxWeakCount>55</maxWeakCount>
      <stageThreshold>-8.3695828914642334e-01</stageThreshold>
      <weakClassifiers>
        <_>
          <internalNodes>
            0 -1 47 7.0581063628196716e-03</internalNodes>
          <leafValues>
            -2.2816872596740723e-01 -1.8892457485198975e+00</leafValues></_>
        <_>
          <internalNodes>
            0 -1 354 1.0809751693159342e-03</internalNodes>
          <leafValues>
            -1.6866250336170197e-01 1.9780117273330688e-01</leafValues></_>
        <_>
          <internalNodes>
            0 -1 73 -4.1160367429256439e-02</internalNodes>
          <leafValues>
            7.1528643369674683e-01 -5.4656956344842911e-02</leafValues></_>
        <_>
          <internalNodes>
            0 -1 455 -1.6071329591795802e-03</internalNodes>
          <leafValues>
            -3.3672043681144714e-01 9.6284374594688416e-02</leafValues></_>
        <_>
          <internalNodes>
            0 -1 516 -2.7339541702531278e-04</internalNodes>
          <leafValues>
            -1.8537327647209167e-01 1.9283270835876465e-01</leafValues></_>
        <_>
          <internalNodes>
            0 -1 132 3.0626352876424789e-02</internalNodes>
          <leafValues>
            -4.7292452305555344e-02 6.3538324832916260e-01</leafValues></_>
        <_>
          <internalNodes>
            0 -1 192 -2.0274553447961807e-02</internalNodes>
          <leafValues>
            -3.5001197457313538e-01 8.7851665914058685e-02</leafValues></_>
        <_>
          <internalNodes>
            0 -1 471 8.6407475173473358e-03</internalNodes>
          <leafValues>
            5.5787160992622375e-02 -7.3080444335937500e-01</leafValues></_>
        <_>
          <internalNodes>
            0 -1 288 2.1018772386014462e-03</internalNodes>
          <leafValues>
            -1.0736742615699768e-01 3.4168869256973267e-01</leafValues></_>
        <_>
          <internalNodes>
            0 -1 261 -9.5907092094421387e-02</internalNodes>
          <leafValues>
            -9.0912747383117676e-01 4.8385892063379288e-02</leafValues></_>
        <_>
          <internalNodes>
            0 -1 123 2.9872786253690720e-02</internalNodes>
          <leafValues>
            6.3188523054122925e-02 -6.3243031501770020e-01</leafValues></_>
        <_>
          <internalNodes>
            0 -1 112 -1.2339982204139233e-02</internalNodes>
          <leafValues>
            4.9814572930335999e-01 -7.2977267205715179e-02</leafValues></_>
        <_>
          <internalNodes>
            0 -1 495 1.5773111954331398e-04</internalNodes>
          <leafValues>
            -1.3812820613384247e-01 2.2454810142517090e-01</leafValues></_>
        <_>
          <internalNodes>
            0 -1 319 -5.8896455913782120e-02</internalNodes>
          <leafValues>
            -8.0302107334136963e-01 4.6267539262771606e-02</leafValues></_>
        <_>
          <internalNodes>
            0 -1 239 -9.2398747801780701e-03</internalNodes>
          <leafValues>
            -5.0484400987625122e-01 6.5642952919006348e-02</leafValues></_>
        <_>
          <internalNodes>
            0 -1 447 4.5428903831634670e-05</internalNodes>
          <leafValues>
            -1.3030242919921875e-01 2.4084782600402832e-01</leafValues></_>
        <_>
          <internalNodes>
            0 -1 203 -3.9194971323013306e-01</internalNodes>
          <leafValues>
            5.9468603134155273e-01 -5.7030219584703445e-02</leafValues></_>
        <_>
          <internalNodes>
            0 -1 332 3.3892712090164423e-03</internalNodes>
          <leafValues>
            -1.5237644314765930e-01 2.2651442885398865e-01</leafValues></_>
        <_>
          <internalNodes>
            0 -1 105 4.2213215492665768e-03</internalNodes>
          <leafValues>
            -5.9483289718627930e-02 6.1720705032348633e-01</leafValues></_>
        <_>
          <internalNodes>
            0 -1 386 -5.5505393538624048e-04</internalNodes>
          <leafValues>
            2.6366466283798218e-01 -1.1986277252435684e-01</leafValues></_>
        <_>
          <internalNodes>
            0 -1 59 8.3400070667266846e-02</internalNodes>
          <leafValues>
            3.5577755421400070e-02 -1.0726652145385742e+00</leafValues></_>
        <_>
          <internalNodes>
            0 -1 41 1.4333551516756415e-03</internalNodes>
          <leafValues>
            -9.0772308409214020e-02 3.8403582572937012e-01</leafValues></_>
        <_>
          <internalNodes>
            0 -1 76 -1.6301047056913376e-02</internalNodes>
          <leafValues>
            2.4624375998973846e-01 -1.3918526470661163e-01</leafValues></_>
        <_>
          <internalNodes>
            0 -1 407 -1.7575012147426605e-01</internalNodes>
          <leafValues>
            -2.4226333200931549e-01 1.3833321630954742e-01</leafValues></_>
        <_>
          <internalNodes>
            0 -1 253 -2.8902196791023016e-03</internalNodes>
          <leafValues>
            7.3133498430252075e-02 -5.0965362787246704e-01</leafValues></_>
        <_>
          <internalNodes>
            0 -1 241 2.5516198948025703e-02</internalNodes>
          <leafValues>
            7.1424335241317749e-02 -4.8579287528991699e-01</leafValues></_>
        <_>
          <internalNodes>
            0 -1 491 -7.1258172392845154e-03</internalNodes>
          <leafValues>
            1.7579679191112518e-01 -2.1990534663200378e-01</leafValues></_>
        <_>
          <internalNodes>
            0 -1 473 -4.3656416237354279e-03</internalNodes>
          <leafValues>
            7.0957750082015991e-01 -6.0459200292825699e-02</leafValues></_>
        <_>
          <internalNodes>
            0 -1 190 2.5283666327595711e-03</internalNodes>
          <leafValues>
            -1.9553007185459137e-01 1.9112728536128998e-01</leafValues></_>
        <_>
          <internalNodes>
            0 -1 89 1.5637092292308807e-02</internalNodes>
          <leafValues>
            7.3774494230747223e-02 -5.9647256135940552e-01</leafValues></_>
        <_>
          <internalNodes>
            0 -1 390 1.2134925276041031e-01</internalNodes>
          <leafValues>
            -7.1912087500095367e-02 5.5006420612335205e-01</leafValues></_>
        <_>
          <internalNodes>
            0 -1 158 1.1816953774541616e-03</internalNodes>
          <leafValues>
            -7.7454969286918640e-02 5.0319933891296387e-01</leafValues></_>
        <_>
          <internalNodes>
            0 -1 399 8.3903810009360313e-03</internalNodes>
          <leafValues>
            5.5192764848470688e-02 -8.8994860649108887e-01</leafValues></_>
        <_>
          <internalNodes>
            0 -1 494 4.1270637302659452e-04</internalNodes>
          <leafValues>
            -1.1043571680784225e-01 3.8135454058647156e-01</leafValues></_>
        <_>
          <internalNodes>
            0 -1 173 -2.7092162054032087e-03</internalNodes>
          <leafValues>
            -4.0712428092956543e-01 9.9584579467773438e-02</leafValues></_>
        <_>
          <internalNodes>
            0 -1 56 -1.4764761924743652e-01</internalNodes>
          <leafValues>
            -9.5637604594230652e-02 4.0750563144683838e-01</leafValues></_>
        <_>
          <internalNodes>
            0 -1 439 1.1997580528259277e-02</internalNodes>
          <leafValues>
            -5.1438193768262863e-02 8.4838396310806274e-01</leafValues></_>
        <_>
          <internalNodes>
            0 -1 217 5.7294964790344238e-04</internalNodes>
          <leafValues>
            -1.1642569303512573e-01 3.3478143811225891e-01</leafValues></_>
        <_>
          <internalNodes>
            0 -1 304 -2.4633202701807022e-04</internalNodes>
          <leafValues>
            -3.2988396286964417e-01 1.2088712304830551e-01</leafValues></_>
        <_>
          <internalNodes>
            0 -1 168 1.2728142610285431e-04</internalNodes>
          <leafValues>
            1.2104797363281250e-01 -2.8081274032592773e-01</leafValues></_>
        <_>
          <internalNodes>
            0 -1 216 5.7904850691556931e-03</internalNodes>
          <leafValues>
            1.3197304308414459e-01 -2.8486654162406921e-01</leafValues></_>
        <_>
          <internalNodes>
            0 -1 256 -1.6004252433776855e-01</internalNodes>
          <leafValues>
            -7.3600834608078003e-01 6.1125487089157104e-02</leafValues></_>
        <_>
          <internalNodes>
            0 -1 388 6.4269870519638062e-02</internalNodes>
          <leafValues>
            -5.9556115418672562e-02 7.4746018648147583e-01</leafValues></_>
        <_>
          <internalNodes>
            0 -1 225 7.9784868285059929e-03</internalNodes>
          <leafValues>
            -9.3298450112342834e-02 4.0664207935333252e-01</leafValues></_>
        <_>
          <internalNodes>
            0 -1 187 9.7580242436379194e-04</internalNodes>
          <leafValues>
            1.3521127402782440e-01 -2.6574325561523438e-01</leafValues></_>
        <_>
          <internalNodes>
            0 -1 361 -3.0863258871249855e-04</internalNodes>
          <leafValues>
            2.8001198172569275e-01 -1.3594964146614075e-01</leafValues></_>
        <_>
          <internalNodes>
